// put training data from localstorage here
var data = '{"levels":[{"inputs":[0.6492002571138928,0.4143167410896492,0.7916733722608046,0.803348260401838,0.8125716565788942,0.8197927711766403,0.8236005332111239,0.7638105285053144,0.4509962404950669,0.22299886829634707,0,0,0.5911745088565371,0.7198090499419152,0.7857561248059876,0.7905539505837091,0.7816541517486825,0.8708534828436305,0.8846808684561553,0.8951869526180297],"outputs":[0,1,0,1,0,1],"biases":[0.9438533183091776,0.7561132231107677,-0.19379877566542952,0.039522950042645166,0.0565873792273294,-0.5552133273837982,-0.3049538906993805,-0.3617892032710504,0.702871582939137,-0.8753366109748073,-1.4163494235886362,-0.952195176102393,0.8872985045378842,-0.3529713777318414,1.2168763860190577,0.38630290221551666,0.04234186321125711,0.1631683432984982,-1.302413568440333,-0.6425933656845071],"weights":[[0.03752056927617561,0.1650994577916606,0.03084039228644074,-0.18764377269296256,-0.29689420751265994,0.04016986006562419],[0.07205998346042669,0.1588179195219813,-0.017961511669089825,0.34638619192837133,-0.11967395948637015,0.09641366863202466],[0.08065136395843318,0.05699253293194593,0.025718350188151794,0.23239502008140353,-0.03602382442701149,0.020242366392993302],[-0.10917090819323223,-0.042705098057054615,0.04188356143657952,0.1751629400908753,-0.08199076251906369,-0.1730182098068205],[-0.008271446178551224,0.029069390036794394,-0.1281847266037886,0.12637854306353688,0.381822178342278,0.05110255249439114],[-0.24005523542006144,-0.03216609049078704,-0.1752895533322102,-0.27653712285866094,0.054771130741261206,-0.06629354537435443],[-0.24821571496240696,0.08791882475723586,0.005205567361011548,0.2333925297328845,0.028990618756717365,-0.00829399178350895],[0.054425019451040696,0.173769779791763,-0.25474952686748814,-0.042946594808852157,-0.1450000412488649,0.25979978388789027],[-0.09952916393052055,-0.15193447192146628,-0.35343878354391695,-0.1538307774724586,0.029866472359409264,-0.14500859568108312],[0.08874183197684668,0.01937665924473525,-0.2255567571880839,0.12864120636977255,0.03595246900167508,-0.09839553062893114],[0.037616916328389385,0.027393886909406667,0.1266150164684614,0.32137456366841577,0.06661350955352119,0.2488939815199979],[-0.0950086914835287,0.1991524064973172,0.081920149679722,0.1272184531730268,-0.10746397059709004,0.25428946402741287],[0.2969648052067714,-0.09726059285633461,-0.19419118153355094,0.06749330752161904,0.09559900941933755,0.03719148294108872],[-0.10802021168340423,0.320385806619119,0.1646182059792881,0.06386211337688502,0.022581300736926872,-0.010092274485437557],[0.009815217871025489,0.04807048017860708,-0.0012231423867045815,0.05708523261058572,0.09093298936934413,-0.11672664319310685],[-0.20927635565882838,0.21540893736704445,0.07346759930575479,-0.0559953274957494,0.05797563051584942,-0.07720880390251672],[-0.07898251658069606,-0.07338631857995757,0.267228674346214,-0.16108294402942966,-0.2031180832328091,-0.06901820211417396],[-0.21249665920384003,-0.02781581520503351,0.1446308917255376,-0.14078619204844367,-0.037839997598451316,-0.014503899768519402],[0.07570902882210986,0.06389307463593207,-0.07221987650225387,0.09494470117057194,0.16947303587144402,0.06210325132262863],[-0.05183876654691201,0.16370350673368034,-0.03806513768771293,-0.0195043472425568,-0.07175964416895639,0.17446009941448135]]},{"inputs":[0,1,0,1,0,1],"outputs":[1,1,1,0],"biases":[-0.41336038109916484,-0.03584147192029788,-0.8350686002489625,0.8671688499297567,-0.3942164441948254,1.2802094784159617],"weights":[[0.14453986143474745,-0.0037173216919194063,-0.013865792857407126,-0.20182641207377836],[0.18294050935599823,0.08063195274855837,-0.1304914563217333,0.06259244084370254],[0.035865702746479114,0.10134498586456053,-0.17158164059019093,-0.06708479737712997],[-0.0753952219267047,-0.1595242067063022,-0.17027481380373494,0.16817477170711342],[0.22415720164127942,-0.1656365231253399,0.0854746595605502,-0.10551127791298318],[-0.12419133321066794,0.051670877526473404,-0.435898004093878,-0.12476887423731198]]}]}';



if(!localStorage.getItem("data")) {
    localStorage.setItem("data", data);
}