// put training data from localstorage here
var data = '{"levels":[{"inputs":[0.7696653076266775,0.7505484241013773,0.7259294552228802,0.6935967448441239,0.649903579667108,0.588397286966323,0.4965012779970279,0.346024980791236,0.058090440744198335,0,0,0,0,0,0,0.24252671589502295,0.2192321867554633,0.19497054084933552,0.2865020603003895,0.3553905538963962],"outputs":[0,0,0,1,0,1],"biases":[1.0269768611090992,0.20177666929933832,-0.3125620945057897,-0.2805752698412287,0.7751537958967746,-0.7894178602534608,-0.6741657024376209,-0.29156629298539205,0.8771939855124007,-0.9017177159989321,-1.271304357293866,-0.8826080282977596,0.6058619000857541,-0.2234705652777858,0.8917909845339034,0.08631608458466619,-0.1327315401422148,0.013537490058057239,-1.1428591652666875,-1.0728469579330127],"weights":[[0.04282961098851929,0.044692081900998215,-0.18193644926641106,0.0128507876942021,-0.11585953228781655,0.11498608281220053],[0.13882701846581566,0.23634115789190135,-0.1703296248928216,0.2918996186109099,-0.05136959046070427,-0.07713374393160163],[0.24380562708160405,0.0419769584071431,-0.1037681594049013,0.09045757367129485,-0.10095618646769741,-0.06470198958527643],[-0.14765649498676414,-0.04584538242004668,-0.08197762530939619,0.07364584298903754,0.18350571074081815,0.18919967248906364],[-0.11424211521403511,-0.013340316594339853,0.18506524958331275,-0.061960660194305295,-0.0038218378021222035,0.015446520480423333],[0.07366867719003825,-0.2301315599886612,0.03254961775718565,0.10445702575094401,-0.07690155127963622,0.13878199072051164],[-0.08334998841262678,-0.10007584906634383,-0.1692442892498878,0.06677994853603776,0.06369773763600695,0.03565503344298454],[0.0916476144792164,-0.0008357816270819626,-0.008404025967287279,-0.2141713680191095,0.1800454428979514,-0.13583427046209443],[-0.023427747583767616,-0.09255191480645912,-0.15731056296053256,-0.04126326703054293,-0.1788293662979206,-0.15873903804170847],[0.188248549819872,0.011419274457673875,-0.11840566213378394,0.09771900739209327,0.04536654067484639,0.055161272965445096],[0.1258411949375235,-0.18135420021889906,0.15425764267853234,0.08622078860237156,0.04513089430105572,0.07843627976653399],[-0.11888068102966919,-0.014834816279587375,-0.03727532499949344,-0.10941874877631579,0.08804922245049504,0.017133747027990785],[0.03744794401255285,-0.0480054086890346,0.24381607555670118,-0.19686425114098055,0.1684939507583854,-0.05025944466509565],[-0.21058560599755075,-0.06705959669153856,0.03263368041888542,0.19814788458856472,-0.17082800113159688,0.04701723315928709],[-0.038185592954608896,0.11032510262275938,-0.13702096412667486,0.014817029401884863,-0.056217044651605166,-0.19235440062144638],[0.13689784985305106,-0.14136218747818594,-0.041843232141278,-0.056098758349807494,0.25189096559555335,0.12173980578884017],[-0.04943974439388148,-0.06545516172973263,0.15953975632717574,0.19831289713137984,-0.007227786762432785,0.054066252691142236],[-0.11736972720709443,-0.08941053703287707,-0.07841569624991392,-0.13152226927200897,0.08010129184402098,0.023392565498803627],[-0.11594403583643294,-0.054085550840707326,0.08560520965862557,-0.06906261883004021,0.027848359199717614,-0.044635785178205566],[-0.07872256274056402,0.022496755539311186,0.009107800361248341,-0.08435349495761003,-0.22340365189143568,-0.0361789689137819]]},{"inputs":[0,0,0,1,0,1],"outputs":[0,0,1,0],"biases":[-0.12661704085806913,-0.061835286543684254,-0.27710949454743,0.88318144940116,-0.06646865515874928,1.2632700336182499],"weights":[[-0.08033035340318381,0.12740805777906666,0.07363502842790066,0.033725005313539134],[0.10212282714819712,-0.08165964502176107,-0.1542587893270659,0.04757685116953336],[0.25799218611488706,0.08291248016233094,-0.13767158255884718,-0.27674218007362344],[-0.22659836714217385,-0.03634095452359719,-0.10168318567375116,0.07200852149642943],[0.022808328955651803,-0.21056996578130072,0.18965186632983808,-0.19814951671296058],[0.024048218147123553,-0.09623175873768124,-0.1067419211525561,0.049878845884673007]]}]}';



if(!localStorage.getItem("data")) {
    localStorage.setItem("data", data);
}